{
  "topology": [400, 2, 1],
  "activations": ["Sigmoid", "Sigmoid"],
  "weights": [[[0.7302511331990172, 0.5968915822372118], [0.1997967977304621, 0.8086773224456854], [0.559230256306747, 0.7164086915918646], [0.01331418730876055, 0.6250323884612602], [0.42328168639586805, 0.907912890089473], [0.2527168709211228, 0.8778642818165733], [0.32624469721015037, 0.8892020867168485], [0.10055843367432504, 0.4128790755001157], [0.5477068657905586, 0.8779504759917264], [0.15004288982288172, 0.6839154541078036], [0.6245243815199375, 0.031192317084515975], [0.8165116153867898, 0.05301687415099643], [0.23079627082397258, 0.2639492052006035], [0.16693048958001022, 0.06109343457241834], [0.6792231770836438, 0.05787163809873308], [0.13689016362308926, 0.42115699220977654], [0.08025819090451014, 0.2858038451659567], [0.18373398453579215, 0.2917773625948199], [0.2901839049926648, 0.5244709393180028], [0.7847796458011763, 0.7253211546801042], [0.6552260426805178, 0.8050251518089154], [0.8312022504716174, 0.053699210148999144], [0.2160411399415143, 0.2599787004427804], [0.8909978424255356, 0.3737625766947703], [0.4753916570607635, 0.6650881065677174], [0.5185483033366812, 0.22515087218555008], [0.05154912098808284, 0.4460452062194449], [0.27365970889875735, 0.01531110588808171], [0.5409418450879303, 0.3223685847703349], [0.879548471788071, 0.7395689774624564], [0.6957909876156738, 0.394678086615757], [0.9971000395252109, 0.06854897030913298], [0.5859544668791337, 0.14657457570543664], [0.42182782454553636, 0.9309031946705136], [0.7589257236356655, 0.5286357887897256], [0.12031045932085582, 0.30622339287722244], [0.5379101421657931, 0.019578331808255522], [0.4144877126278189, 0.061174572388763226], [0.5051287928635769, 0.3184249950526502], [0.7950467471197464, 0.3113022178966637], [0.9059759980102172, 0.11155557478347944], [0.29923190121032406, 0.9716301124038945], [0.1793830055695771, 0.1798082580721333], [0.12376285482094274, 0.8710788478851408], [0.07071767418761798, 0.9633381882358025], [0.1601475311506212, 0.04889969024589835], [0.8157756070867973, 0.5857282027919573], [0.4375277529262571, 0.6257327479915672], [0.6978956167324659, 0.25388651717967325], [0.037297019843105295, 0.9475616491337974], [0.8749581201279059, 0.8965544843582339], [0.9040815789712575, 0.5377518535105003], [0.7490024240302846, 0.8817873985250694], [0.1192773724173054, 0.7605234717563806], [0.308424865138078, 0.6625595758572379], [0.6261870625377637, 0.9986229962080387], [0.8111967022590894, 0.23968455700090208], [0.09990288628130162, 0.5786235804102859], [0.8972667125865637, 0.4025301488490397], [0.6404326810985156, 0.6391964539982593], [0.719290693750471, 0.8105472000402317], [0.2341678019811243, 0.6308604836558411], [0.9630561032836943, 0.11241962131344807], [0.4766437066467657, 0.16013143258911144], [0.6924468743042059, 0.46468325982438485], [0.8786448014212088, 0.4466557297949415], [0.7985197490644989, 0.00794862854179701], [0.18805741109695995, 0.7488281142502513], [0.45824061166304086, 0.08640364500137765], [0.5514759287685228, 0.7315567586715054], [0.4156550126728701, 0.25505950568115], [0.012418717069127116, 0.8992527917490912], [0.08674458037043431, 0.40924349579031594], [0.7971120809545984, 0.8977860152412356], [0.45894662505660766, 0.6921309041651036], [0.07415239067979029, 0.701062355906894], [0.5072916452382916, 0.18864684224008488], [0.3909570992057021, 0.4410423195536808], [0.38133955264276664, 0.7978591299266647], [0.7877683386235006, 0.914434423853192], [0.9305719011968947, 0.09102089032199234], [0.6690730480996305, 0.604961147165971], [0.23062453124260474, 0.4087119456477728], [0.8726559199032922, 0.3970091454623609], [0.6487207084139344, 0.9280661940636503], [0.01810278063459203, 0.0246396879713473], [0.6438924889374916, 0.9398616708101001], [0.13942364822964393, 0.6993491166116592], [0.9360535371147165, 0.11528905016246693], [0.8105659660267253, 0.29063322570315187], [0.8977139946154626, 0.11350328454880054], [0.45794069463514775, 0.8953237273172083], [0.023104125714322632, 0.48360205291106684], [0.3206848798873946, 0.6248288327572707], [0.11170009607080933, 0.44846419371048307], [0.5672361565425341, 0.9638239338029658], [0.36662207216760034, 0.8229195258526242], [0.4058963793659719, 0.10960288534079088], [0.9531007662927786, 0.0150117063932107], [0.637412614591965, 0.28821384961439556], [0.6881861311797668, 0.7866535966350708], [0.9892060127319562, 0.16166837123812083], [0.4400971504924195, 0.2087645380936718], [0.7437299360146641, 0.08992555461381857], [0.504089553250337, 0.03601763893274712], [0.6275407232350441, 0.19201851755408095], [0.6914439293511936, 0.5476144279922275], [0.6630159427163426, 0.8626029581756024], [0.11915355192864518, 0.7530429000585185], [0.7012563574873227, 0.6433728224839198], [0.7201180878979386, 0.7455645426782731], [0.6525597761976196, 0.1232015699035921], [0.30712530230889734, 0.9012148369692515], [0.00995611783123429, 0.8465317726006034], [0.6186301894309645, 0.5673903201635191], [0.12164465943128167, 0.046449768319777984], [0.1503166838028922, 0.8626353294649614], [0.8097764595101243, 0.3870464116657205], [0.7336545556505776, 0.21802951344201837], [0.35587577606487264, 0.7990783537913798], [0.7611398945468675, 0.3306170772176841], [0.5772963858405106, 0.9236093330269941], [0.6776345343752022, 0.2706074515229958], [0.7044601235306506, 0.6402242369156627], [0.8581964112509288, 0.5866161780670347], [0.035226545345335425, 0.6495728518268088], [0.2750190697418765, 0.38700377800640373], [0.8905940231784992, 0.10441489216747168], [0.41957538459461585, 0.5404096487039197], [0.22503443422462688, 0.8390010110411316], [0.7907870021334558, 0.33486693099642106], [0.3551149279469946, 0.8335394652817045], [0.8860176683055812, 0.1624234753974324], [0.661661862253672, 0.1686614979482013], [0.03891503706181465, 0.054982706379206436], [0.793573620470146, 0.8742130375158373], [0.6366019967080292, 0.18711809744743046], [0.8554908141217729, 0.7573638344737199], [0.21844589220576893, 0.7829029372921239], [0.2968830174519176, 0.5069401513315615], [-0.06889993694686726, 0.8254967615271088], [0.7229886776280849, 0.2538449017719198], [0.5610871963454639, 0.6185359284951392], [-0.8951079418838335, 1.0402919189794106], [-0.7907773676077006, 1.9272794097148955], [0.22279062448164097, 0.8400120950823141], [-0.31040083098443216, 0.4730082832390953], [2.870121407697311, -1.6169558079606627], [1.6168617773888132, -0.3995719372134177], [-8.289912774384497, 7.27948155168241], [-5.9851548033627795, 3.156863442501435], [-5.888013259086721, 3.1165179870345883], [14.659076288072498, -10.972649037885658], [10.993458080269638, -6.012966729202596], [4.097572461417549, -0.74695412830434], [4.141919469774388, -1.5575964214275808], [5.596700229992992, -0.47138077146727686], [1.424485089038313, 1.3393049973437934], [0.6029484345346615, 0.24051045718791145], [0.1954247577615017, 0.6218867626832156], [0.24467743955448423, 0.6657235676563079], [1.305512268879004, 0.30856367574797827], [0.9962871961505934, -0.21208535238108608], [2.456832851646186, -0.5577898999357659], [0.9901157550485077, -0.6174955798006478], [-1.8345708356477697, 3.8074680805168497], [-2.3208346198999132, 5.766204906076953], [-6.270420792197648, 8.049741789546818], [-5.180841947168079, 7.001581996437422], [-21.989984853194855, 14.10153334220555], [-26.451756895158113, 16.660034036626218], [-21.86062117064574, 12.052486230169308], [-11.350321839465847, 8.006255042424963], [-19.005725649858515, 21.228961557386285], [-11.169630880337676, 5.695616827639322], [-10.45514584529582, 0.21436172532165645], [-8.904312974975099, 2.8694006485179457], [0.8672141691268723, -0.5147346382939639], [1.7119928355732321, -0.24067954188375515], [1.965024625510713, -0.3888830029547421], [0.89197302290238, 0.2569130835188794], [1.2291248114214828, 0.2295474576402826], [0.23964613535235413, 0.8904720915932326], [2.9046150238862856, -0.9163818169346712], [2.1214075484587456, -0.048672386953532765], [-0.2532143428761612, 0.6997805039400962], [4.397621035620762, -1.5956130457938318], [-9.919088381994094, 6.611690851509884], [-2.9130856740909015, 2.219198844168076], [-2.3675471587393053, 4.670506772532826], [-3.7846116984096345, 5.3634409865914225], [-11.217480685945018, 5.151589348753916], [-11.01716943195159, 10.714793871146117], [-5.068032456930087, 9.046614732305438], [-0.6307659347130631, -3.074159554199997], [-7.949137599852919, 0.8105600903492733], [-2.055405715121743, -0.4030457997088469], [7.299672106797152, -5.044853471829815], [4.060980852709209, -0.9513211077889523], [3.6735261942969064, -1.1415433924408984], [1.0699496190387867, 0.6113652529005228], [1.7530486324643433, -0.2191564866731257], [1.9563306609670774, -0.7827799625798397], [7.548990059217668, -5.158121932003006], [12.63003160012028, -7.272390832729327], [8.6731005660147, -7.5581875444437925], [11.49810884194131, -7.735948976951563], [-6.690151762836575, 7.657167513388182], [-4.387706376822407, 8.544754755209711], [-7.165004644110864, 6.7974964556731825], [-3.796828118598424, 2.2760196580772765], [-6.137377131837655, 3.042842720616418], [-3.444689125081511, 6.520007151745097], [-3.1542302348505706, 5.794614297615405], [-5.701253593883014, -1.2796307820810036], [-5.330962551802728, 1.5200228324351133], [-2.9699116780629753, 1.9361125398487709], [1.021312514491618, -1.1717986156090396], [4.052576062977428, -1.9408615840187624], [2.8003336691502585, -0.9360321863109291], [0.9283209505470518, 0.6870982099755044], [0.8166155234881856, 0.25445438905132745], [-0.0857832928226604, 1.2601177195591433], [8.874596712922601, -6.170940347548893], [16.311730540791594, -10.473058592719832], [9.234576983278279, -5.285174766128889], [14.953572271816066, -8.52179646753487], [0.4150145522059621, 4.6373355900839535], [2.5260405678840314, -1.3097293064046442], [-0.33315697380805614, 0.36950036364025485], [7.534474382225299, -3.1053309180240407], [0.16525417764355574, 3.2074588060892517], [5.228413188690156, 4.8909451303949805], [2.540743538924504, 1.4610574149938924], [0.053250988727723346, -10.035645446811548], [-3.6827794351404792, -3.288738617215018], [1.0971683624205804, 2.1878346344444615], [4.870195402230803, -2.4222958550638123], [6.794671912621523, -3.205494219298646], [5.185917511020254, -1.1970560348877914], [0.16697607625704047, 1.1938959926073132], [1.3081501742352575, 0.05239914085026952], [-3.2562900512180017, 3.37302941972382], [1.6093018960727195, 0.2631099425797125], [0.8104818600532497, 2.926620530726971], [7.474073139688903, 0.33279023087519416], [13.222537099792026, -6.087442528332963], [13.657430572601958, -6.220699423289917], [22.101506873407327, -12.184252655975358], [1.8219476375454617, -1.7218524213065882], [12.441581914073582, -0.10351307628851082], [7.588967146491625, 12.753169296387554], [2.7625378410460266, 12.642503166736248], [-11.173354092952998, 9.665124391139688], [0.16147938137969728, -10.396577400465764], [-1.743162667214495, -7.526818859561216], [1.1007324102202671, 1.968669845566524], [7.474239148625401, -0.9080536398438701], [7.86921205373334, -0.958331448500069], [4.631732151860262, -0.5725143011090918], [-2.967637370952761, 3.569674106662372], [1.4956746616470102, -0.009939396918526413], [-6.571266883930468, 6.57421078236588], [-4.6252895560824445, 5.603441259330182], [-4.388383325689291, 4.328594272691256], [13.248418516247657, -7.461186022368103], [6.592178372166251, -4.9953935072815865], [12.490467076765349, -10.097728611032323], [17.52566261514766, -13.587543425846215], [10.425933329688135, -4.754623561935362], [11.498313810712702, 4.473400543312482], [8.016094793160653, 15.853036426196283], [3.2041513778102817, 9.531005728558483], [-0.8069304290838719, 0.22163570946645134], [0.5990208233052448, -8.060790854712378], [-2.537202473454057, -6.370691765119106], [4.736157088837793, 1.8921913237189143], [8.912255205850979, 3.228539812219515], [7.593363593709848, 1.1564442447433065], [2.0618893450743037, 0.951780335796911], [-4.630956576979112, 4.149827932429747], [1.7472772105513796, 0.5735340957852905], [-2.766517436197302, 3.6257211219362087], [-3.9852003112526155, 4.5884581574566825], [-6.603976095620491, 3.6945326617994745], [0.3294774128210949, 0.19538081359554624], [-2.9463529428416995, 0.2909497259694882], [7.813626104233303, -14.269687861133457], [11.90039331649806, -16.67580901195278], [7.873973488448956, -4.120927641674735], [6.792002378207912, 8.952798977464257], [11.71509998809521, 6.1938688226568335], [-4.8147791309530055, 4.5863884305732965], [-0.3020087931808523, -3.896654255277536], [7.233555535215544, -7.825522307066591], [0.1577334602375771, -0.5088178946899796], [2.589327357061764, 4.404669479219843], [3.404358381378018, 2.9217060154154586], [6.127864283656252, -1.006524855835369], [2.0327293780578652, -1.5133283058654634], [-4.336690614727389, 4.588350942977441], [0.5741569883673803, 0.8113689902015561], [1.9124059287116084, 0.44167564237330237], [4.052362371165867, -1.2498844639594024], [5.557945729869007, -5.210948566303092], [5.52258364322801, -2.752758986656644], [-5.210800489447099, 2.7711046820068908], [3.27869937784676, -10.035621689743074], [3.452533066918123, -12.281060192975923], [2.071508898173511, -3.1559426982871535], [5.187035117693358, 7.601786839344067], [3.2833287469183694, 7.150618729324627], [-0.46745370625742305, 1.4450767323306681], [-0.5364906372897602, -2.569060274863698], [2.9846345790606232, 0.3517658626302247], [1.6439504282421653, 4.455023060899165], [-4.099654553026031, 8.741967226907821], [-0.6184535392207843, 3.4434592625637834], [2.891515766528391, -1.8079814839925512], [1.8655964287845541, -1.7218135624737063], [-3.1144405728578057, 2.6012311112355277], [-1.440267944098874, 2.75145876356429], [-2.423172962912787, 3.1076357849077447], [-4.286241097461009, 5.379465960919531], [1.6591929259597649, -1.163996000920054], [10.476838455663705, -9.601643875598542], [-7.104679686871727, 3.458723256141459], [-3.187790648938227, 0.4965384331834014], [5.764082109999878, -12.903952140374544], [-0.1536462247995014, -8.485563116816877], [-14.246875570575279, 9.328829537755643], [2.804811223591619, 0.6705326587724478], [1.1451506746796862, 0.5996288875625506], [-2.195046920875071, 4.398183099225123], [5.202113606721645, -0.6883867504297444], [7.4611335181626846, -1.150032126836871], [9.136336479026465, -4.184933591321851], [1.5090122039389624, 0.23895247312574575], [3.2544402987971814, -0.3593610317681199], [2.417385349894006, 0.2662320036546641], [-0.9321163657914844, 1.2672074697581115], [-0.8065092472028296, 1.5291664753811107], [-3.6977973525219903, 2.9539418843602907], [-8.135382807906135, 7.317086579866372], [-1.9187216216593337, 3.965786502690877], [-0.8853517998168073, 0.7682430135607271], [-7.732003423158064, 4.600160936889094], [8.183427554355848, -6.45750053539505], [12.035207702510675, -7.998176945341203], [0.36289291060164974, 0.48592512732752496], [-9.513768815526072, 5.7366536151863174], [2.400463864699475, -2.96603652315282], [-3.5295130218932607, 3.659131107787095], [-3.4998516451327784, 3.558195554628016], [9.090541519610785, -8.777439769356429], [9.295638357095228, -7.804010011146668], [10.010065259524703, -6.036146678644856], [3.6608903306145306, 0.2583818215956423], [1.163508620958334, 1.494094014541896], [0.35854054490201603, 1.698474785716585], [-1.0177788701442574, 1.079491787161548], [-3.846985443744385, 2.8343754778430923], [-3.5523702762157, 3.633193592336919], [-1.7756418692629696, 1.6415821450805554], [2.882248094922404, -0.8016205617962295], [-1.9272606735658213, 2.73050551231439], [-3.1905759321301668, 3.474471256751747], [-2.326876790968965, 1.0236303409663616], [2.021129284922098, -2.5071839083966205], [-3.303877831187595, 2.491077694885706], [-7.868344540353691, 5.109442228428807], [-5.704308573636941, 4.4026883895168965], [-7.931912625365124, 5.068117464718688], [-4.908991837346306, 1.7958925901720517], [-1.2228711883169225, 0.7472746666930296], [0.1458089445337195, 0.7853149686888516], [2.0784086461324174, 0.4252156440191671], [3.637221794078914, -0.2164788888470069], [1.8726438241980998, 0.19109354005818158], [1.2328641206774547, -0.3580336928496181], [-0.4461011869963044, 1.7513088012155518], [-2.914380937380998, 3.035966209114931], [-2.917021693913655, 3.1504690764262473], [0.43760270617270447, 0.4527158899006053], [5.086777038066296, -2.6668099911839356], [2.2188980898758563, -0.020350636650816885], [2.1046484659256275, -0.7109931022429864], [3.8541824802198783, -2.9072049714668533], [8.847414461793832, -7.2573247629676265], [3.1526030134519827, -2.64273599244212], [-5.064429264236319, 3.7378744825751165], [-5.168990136278405, 4.251604920779492], [-7.056500682611732, 4.611072071059415], [-2.6481520675255648, 0.11784188990682255], [0.1851655117855745, -0.23805497105657142], [0.51367337096689, -0.42364583356107804], [2.7854768589144254, 0.8192705622633243], [3.6681749312223, -0.1203373889755246], [1.5448946599069906, 0.5352509790627422], [1.3684825698367495, 0.30249148119834435]], [[-65.61435434375892], [57.91384203772618]]],
  "biases": [[[-0.09183553558243168, -0.1464660000215181]], [[4.115484251788662]]]
}