{
  "topology": [400, 2, 1],
  "activations": ["Sigmoid", "Sigmoid"],
  "weights": [[[0.7302511331990172, 0.5968915822372118], [0.1997967977304621, 0.8086773224456854], [0.559230256306747, 0.7164086915918646], [0.01331418730876055, 0.6250323884612602], [0.42328168639586805, 0.907912890089473], [0.2527168709211228, 0.8778642818165733], [0.32624469721015037, 0.8892020867168485], [0.10055843367432504, 0.4128790755001157], [0.5477068657905586, 0.8779504759917264], [0.15004288982288172, 0.6839154541078036], [0.6245243815199375, 0.031192317084515975], [0.8165116153867898, 0.05301687415099643], [0.23079627082397258, 0.2639492052006035], [0.16693048958001022, 0.06109343457241834], [0.6792231770836438, 0.05787163809873308], [0.13689016362308926, 0.42115699220977654], [0.08025819090451014, 0.2858038451659567], [0.18373398453579215, 0.2917773625948199], [0.2901839049926648, 0.5244709393180028], [0.7847796458011763, 0.7253211546801042], [0.6552260426805178, 0.8050251518089154], [0.8312022504716174, 0.053699210148999144], [0.2160411399415143, 0.2599787004427804], [0.8909978424255356, 0.3737625766947703], [0.4753916570607635, 0.6650881065677174], [0.5185483033366812, 0.22515087218555008], [0.05154912098808284, 0.4460452062194449], [0.27365970889875735, 0.01531110588808171], [0.5409418450879303, 0.3223685847703349], [0.879548471788071, 0.7395689774624564], [0.6957909876156738, 0.394678086615757], [0.9971000395252109, 0.06854897030913298], [0.5859544668791337, 0.14657457570543664], [0.42182782454553636, 0.9309031946705136], [0.7589257236356655, 0.5286357887897256], [0.12031045932085582, 0.30622339287722244], [0.5379101421657931, 0.019578331808255522], [0.4144877126278189, 0.061174572388763226], [0.5051287928635769, 0.3184249950526502], [0.7950467471197464, 0.3113022178966637], [0.9059759980102172, 0.11155557478347944], [0.29923190121032406, 0.9716301124038945], [0.1793830055695771, 0.1798082580721333], [0.12376285482094274, 0.8710788478851408], [0.07071767418761798, 0.9633381882358025], [0.1601475311506212, 0.04889969024589835], [0.8157756070867973, 0.5857282027919573], [0.4375277529262571, 0.6257327479915672], [0.6978956167324659, 0.25388651717967325], [0.037297019843105295, 0.9475616491337974], [0.8749581201279059, 0.8965544843582339], [0.9040815789712575, 0.5377518535105003], [0.7490024240302846, 0.8817873985250694], [0.1192773724173054, 0.7605234717563806], [0.308424865138078, 0.6625595758572379], [0.6261870625377637, 0.9986229962080387], [0.8111967022590894, 0.23968455700090208], [0.09990288628130162, 0.5786235804102859], [0.8972667125865637, 0.4025301488490397], [0.6404326810985156, 0.6391964539982593], [0.719290693750471, 0.8105472000402317], [0.2341678019811243, 0.6308604836558411], [0.9630561032836943, 0.11241962131344807], [0.4766437066467657, 0.16013143258911144], [0.6924468743042059, 0.46468325982438485], [0.8786448014212088, 0.4466557297949415], [0.7985197490644989, 0.00794862854179701], [0.18805741109695995, 0.7488281142502513], [0.45824061166304086, 0.08640364500137765], [0.5514759287685228, 0.7315567586715054], [0.4156550126728701, 0.25505950568115], [0.012418717069127116, 0.8992527917490912], [0.08674458037043431, 0.40924349579031594], [0.7971120809545984, 0.8977860152412356], [0.45894662505660766, 0.6921309041651036], [0.07415239067979029, 0.701062355906894], [0.5072916452382916, 0.18864684224008488], [0.3909570992057021, 0.4410423195536808], [0.38133955264276664, 0.7978591299266647], [0.7877683386235006, 0.914434423853192], [0.9305719011968947, 0.09102089032199234], [0.6690730480996305, 0.604961147165971], [0.23062453124260474, 0.4087119456477728], [0.8726559199032922, 0.3970091454623609], [0.6487207084139344, 0.9280661940636503], [0.01810278063459203, 0.0246396879713473], [0.6438924889374916, 0.9398616708101001], [0.13942364822964393, 0.6993491166116592], [0.9360535371147165, 0.11528905016246693], [0.8105659660267253, 0.29063322570315187], [0.8977139946154626, 0.11350328454880054], [0.45794069463514775, 0.8953237273172083], [0.023104125714322632, 0.48360205291106684], [0.3206848798873946, 0.6248288327572707], [0.11170009607080933, 0.44846419371048307], [0.5672361565425341, 0.9638239338029658], [0.36662207216760034, 0.8229195258526242], [0.4058963793659719, 0.10960288534079088], [0.9531007662927786, 0.0150117063932107], [0.637412614591965, 0.28821384961439556], [0.6881861311797668, 0.7866535966350708], [0.9892060127319562, 0.16166837123812083], [0.4400971504924195, 0.2087645380936718], [0.7437299360146641, 0.08992555461381857], [0.504089553250337, 0.03601763893274712], [0.6275407232350441, 0.19201851755408095], [0.6914439293511936, 0.5476144279922275], [0.6630159427163426, 0.8626029581756024], [0.11915355192864518, 0.7530429000585185], [0.7012563574873227, 0.6433728224839198], [0.7201180878979386, 0.7455645426782731], [0.6525597761976196, 0.1232015699035921], [0.30712530230889734, 0.9012148369692515], [0.00995611783123429, 0.8465317726006034], [0.6186301894309645, 0.5673903201635191], [0.12164465943128167, 0.046449768319777984], [0.1503166838028922, 0.8626353294649614], [0.8097764595101243, 0.3870464116657205], [0.7336545556505776, 0.21802951344201837], [0.35587577606487264, 0.7990783537913798], [0.7611398945468675, 0.3306170772176841], [0.5772963858405106, 0.9236093330269941], [0.6776345343752022, 0.2706074515229958], [0.7044601235306506, 0.6402242369156627], [0.8581964112509288, 0.5866161780670347], [0.035226545345335425, 0.6495728518268088], [0.2750190697418765, 0.38700377800640373], [0.8905940231784992, 0.10441489216747168], [0.41957538459461585, 0.5404096487039197], [0.22503443422462688, 0.8390010110411316], [0.7907870021334558, 0.33486693099642106], [0.3551149279469946, 0.8335394652817045], [0.8860176683055812, 0.1624234753974324], [0.661661862253672, 0.1686614979482013], [0.03891503706181465, 0.054982706379206436], [0.793573620470146, 0.8742130375158373], [0.6366019967080292, 0.18711809744743046], [0.8554908141217729, 0.7573638344737199], [0.21844589220576893, 0.7829029372921239], [0.2968830174519176, 0.5069401513315615], [-0.43428262773107945, 0.9922347158782948], [0.7910829586985061, 0.10377512694733194], [0.6291814774158916, 0.46846615367053474], [0.2995582835127628, 0.571495524119766], [0.041614737715433954, 1.1435975978364616], [0.8595979459203736, 0.20149866235392136], [0.32640649045431025, -0.16550514948925094], [3.0122119637410307, -1.7050351558296475], [0.26621403893302503, 0.6102829532707236], [-10.119047641805926, 8.235383197720484], [-7.729230005843793, 4.727547660178924], [-7.632088461567764, 4.687202204712099], [13.601501968678898, -9.973297983193671], [9.660275436705541, -5.679432003021513], [2.7857643071670704, 0.19334122420753386], [2.8301113155238586, -0.617301068915624], [2.1435682905702884, 1.3092839964680911], [-0.04146148590647674, 1.7803490310654215], [0.951647456471112, -0.06054981372411809], [0.5441237796979616, 0.3208264917711817], [0.1171521787010648, 0.7315787848616718], [1.4985054278106635, 0.19748068849835462], [1.0390285865399975, -0.23287179649272471], [2.7309132116620214, -0.6995675692669876], [1.2605147113136304, -0.6495733069538095], [-2.212473510191418, 3.1018026692324954], [-4.620533226976278, 5.183156064276355], [-7.101535502018855, 7.214015219487368], [-9.070983790334587, 9.0210978747756], [-24.079385029696706, 15.632049185766716], [-26.032441361498226, 15.571701544971784], [-20.351553752389737, 12.99306894769431], [-7.93010102064188, 11.313583285177746], [-19.740046762241644, 24.87164570793312], [-15.596486808851164, 9.72773380590431], [-9.450578909488556, 0.37976622801756427], [-4.41859423017219, 0.8869032642088297], [-0.12395038023562778, -0.4269307747734084], [0.053846031657085444, 0.06132818710531641], [1.7973973997483783, -0.5348960677395571], [0.8730706789786671, 0.2668924808961099], [1.2223467144848705, 0.23822002352975408], [0.18228537694500463, 0.9246895695670254], [2.9743646207097987, -0.9095778875757384], [2.2281591799294853, -0.1790508234573037], [0.26485730166732946, 0.09256362558080215], [6.108819294441187, -2.7377014255552132], [-8.071386871321929, 6.1124247020154066], [-4.918873148745724, 2.665432068173148], [-3.8100886989139098, 1.2383001736241754], [-5.361676932241353, 1.1793214378453634], [-9.809408410245718, 6.581611294275274], [-9.098049920380996, 11.682089253335432], [-8.740371852777796, 10.862610401647414], [0.01905085665185841, -3.3247004113160568], [-5.581936366222363, -0.8312316936133259], [-0.9354303267106322, 0.0990876585840527], [4.927890293100413, -3.3998935431970696], [2.5308358578231065, -0.4773396088814057], [3.0958448094914424, -0.8332062833463675], [1.084994953709222, 0.5936665457787744], [2.1355979495110393, -0.47538628726501025], [2.3077992249432016, -1.0042396150036732], [7.551049155945668, -4.939004100807593], [12.16607509513763, -6.569366406338175], [9.017979095586634, -5.864158859783254], [10.33559136429926, -5.295716513264993], [-10.200831676410907, 8.219055896445724], [-5.230021682157561, 4.935395537868382], [-7.51983434838457, 3.7877940897357494], [-6.049885501721122, -0.5906197468609597], [-4.567318444891662, 2.1009737683708183], [-0.22375931705229027, 3.9117850290304115], [-3.8733692371140003, 3.5279771221947804], [-3.274014238511044, -2.708601149194901], [-3.393489900497917, 0.06566922018547039], [-4.87586514890995, 3.1401212417219275], [1.3740200773513893, -0.7095573006209098], [3.5478858315544897, -1.7416008533892624], [2.573124698961361, -0.8167814481981385], [0.932838462639034, 0.682564613017309], [1.3274902806716995, -0.15517353714191282], [0.629117664729677, 0.6155908524345908], [9.66148183476404, -6.4715658824526106], [18.285732196737875, -11.1203032661009], [9.165461943899732, -3.2694049293816647], [16.031621269062004, -7.99232436248132], [1.355786610084666, 2.3708122933631612], [4.6674064010332605, -3.78464712862621], [0.9756327448390238, -1.0231701640946809], [4.397640804498674, -3.7995108111613995], [-0.9907299265406482, 3.440208244327804], [6.335274110908712, 3.9538653145595184], [-1.4604639585250856, 2.3479806859653847], [-1.483563410549531, -8.255646985572952], [0.7940358024826542, -5.136033590457896], [-1.0882009272176394, 2.0427375990516774], [3.6585756012480366, -2.37678741287415], [5.397846200808857, -2.9590468847903293], [4.167665173183556, -1.0951090672118655], [0.14007146059596698, 1.2090270332335664], [2.2999210025162125, -0.8000171106299883], [-2.6019996853799787, 2.374295967230112], [1.1949768484604621, -0.1305043756869945], [2.6957609648866803, 0.7982897038389227], [3.5899555896047466, 1.2116371351066424], [13.809522044463959, -5.912663395737913], [15.925280886428899, -5.760602179950297], [21.01830987329413, -9.172441396302464], [2.6870654519401533, 0.9056984654425585], [9.045758256734333, -0.4482288798095734], [5.3896432275372215, 9.999243283715213], [7.278943385443617, 8.866150242883522], [-8.291645346465277, 10.458132341797258], [-0.16371971758312037, -6.021018247613312], [2.453844221357879, -6.781702139209256], [1.0613330274201027, -0.7667615027397111], [4.586167605256616, -1.9259832850029395], [6.468305909468886, -1.6766521304681188], [4.958062771735416, -1.376246436833611], [-3.540068578600985, 3.9439021889417916], [-0.3644148137479806, 1.0892456857945183], [-8.94722553041989, 7.324235671142992], [-7.199900123347657, 5.8820232997450255], [-4.203549448541482, 4.173910815698859], [12.17337965798825, -8.916910800334504], [7.389426746665085, -5.721966065283082], [15.52699235775455, -7.93045350735511], [19.650757722000943, -8.606591319819396], [13.00936430910678, -3.174421850022634], [13.815289483548582, 3.921135298902924], [10.432121811125027, 13.007044917389969], [3.321416582591853, 10.175356628886492], [-1.5580330060852396, 4.517141185387257], [2.101851772650165, -2.093961552900383], [1.5839199646192725, -4.868673781118005], [4.251133908617221, -2.654710508179502], [7.083017198394134, 0.06468021848017767], [7.889571507084673, -0.516980398964128], [4.253748771104807, -0.46237419399204205], [-5.907221037087469, 4.89497494742404], [-0.04376512440932914, 1.3182584909464055], [-4.558301849156971, 3.884359190396768], [-4.435121004733544, 3.636804751505692], [-5.981712432792806, 4.294038050888508], [0.26978473154456634, -1.9720406616994712], [-3.0707753186371254, -1.1560916134583352], [12.211736889260017, -13.119618678434788], [18.45565700853847, -14.753284943935304], [11.00925277229395, -4.5601252641118695], [7.453487200833272, 9.199365026990273], [10.55523010143531, 7.871941436834053], [-4.696781515835947, 6.0988777073324325], [1.8642803102941832, -2.6225097326157996], [9.697928740810834, -6.181324217226871], [1.273878863869258, -1.003307980862364], [0.3979210610055485, 0.9839777374289899], [0.7327885983848778, 1.4580070594456207], [6.524244064723355, -2.221657419867614], [4.185205138905999, -2.365198136296429], [-5.603469657844417, 5.328373289538908], [-1.3302291528501078, 1.6109999667317145], [0.27923549014224125, 0.994866235059393], [5.001439652500332, -2.7950474406921195], [6.466345733395951, -4.925342021769449], [2.4418449789550403, -2.7992906586872213], [-6.558593289317349, -0.14734145093523165], [0.912677376594965, -9.952882081900668], [0.26001415936388367, -9.86483643418715], [-1.2558092937082754, -4.125763903922815], [4.239369865615916, 4.7749245009142465], [2.5437826794962066, 7.316650221329874], [0.7777505902082622, 0.6476158573366227], [2.6905884680057617, -4.812476885677592], [2.8477814765093243, 0.1868635488127466], [-3.659360731747033, 6.384066914772057], [-8.459068592200579, 8.028251912151154], [-3.2807436572007567, 1.9345377959845345], [2.9227527098601382, -2.8106578927702106], [3.866509052258733, -2.5202883994690177], [-4.9175151637875025, 3.7385405481217724], [-1.9685843861577066, 2.4845461943968408], [-3.051463725125413, 2.8233917809452054], [-3.23024698326722, 3.1534383471707077], [3.341770374312732, -1.7240817734102667], [11.88396446844595, -9.462137897168079], [-6.178754011030833, 1.3283438533943948], [-5.984110340601115, -1.0201659460424795], [7.835745029038658, -15.028996651258462], [1.0947257532165184, -9.904227467733367], [-15.27035897430935, 9.335165074063784], [1.7453585237412184, 1.9653490442353658], [3.599830946664079, 1.0192368346550822], [-1.4627256040499255, 4.16937442219753], [5.649536487398911, -0.4158849170821803], [9.490527850522861, -0.9989950022964925], [11.301787767428022, -5.359399824707799], [-0.5741372100700792, 0.685282179496878], [1.6201293819264706, -0.6011720608847655], [2.3355338189077783, 0.10428631915694091], [-1.3869034814517365, 1.5623924267014555], [-1.906686114665095, 2.151565968582116], [-4.998155343990345, 3.576431689162211], [-8.294814569502298, 6.076400365809908], [-2.925676673954129, 3.5499525236763096], [-0.8407468901611534, 1.0759731600736986], [-7.608635063021215, 4.624864006710683], [8.65912083308356, -6.827367423335543], [11.96227557862718, -8.61648436657657], [-0.5647032952372365, 0.7737980032380557], [-7.041312680837171, 5.406782366122354], [4.944847843111009, -3.125235945116206], [-2.6157057045528345, 3.6536442724283456], [-5.618754271824013, 6.546165065633123], [11.144896241496141, -5.874035391924849], [13.02491653825862, -6.830152553329795], [11.386593005804368, -6.007443843431062], [1.2764248968076999, 1.1310028797350407], [0.02826536373298442, 1.4466298684606205], [0.037400225198341415, 1.653694243833085], [-0.689875102334442, 0.788736127780302], [-4.035141588681124, 2.7316766287583185], [-3.717881558714429, 3.4938097183904504], [-2.1316234643595724, 1.6374767134564885], [2.271726259608848, -0.5869087110554555], [-2.878108996374956, 2.9831281003525767], [-3.98054063727024, 3.6043423777290275], [-1.9548781813139986, 0.6998892792011799], [2.407369731725277, -2.7924487428679448], [-3.8713069306784123, 2.2941835676140063], [-7.45607414298936, 4.156314864750755], [-5.401722046294942, 3.663849533365666], [-5.968834213943887, 3.5738658923735365], [-4.045407017768452, 1.8736180545930048], [-1.1636388677767642, 0.7843370468761406], [0.5022782882288029, 0.6391071902288933], [1.5153945451333308, -0.07632927974458481], [2.8808568273244606, -0.5781320796177862], [2.764148913176832, -0.7801774860077058], [2.12515593759587, -1.3294245484923473], [-0.11820161298558977, 1.4605547903945888], [-3.099746228117798, 2.92825607933108], [-3.1042338588984846, 3.0460895221527933], [-0.056069872025939375, 0.6923459304585121], [4.399132761255568, -2.2080870054361177], [1.837342129261094, 0.12203650834085149], [1.713859007373884, -0.5567049778991302], [4.294790200174883, -2.9500047151187956], [8.810243305215343, -6.876462901585072], [1.792212921617201, -1.9565826086871578], [-5.201911109582765, 3.076904734926028], [-5.3009260828278055, 3.571510184669578], [-5.294251757258459, 3.04722742863803], [-1.1352152617816331, -0.2668803552410534], [0.5905314802875143, -0.3833293698662586], [0.9421307486862727, -0.5686703711769885], [2.2443739162337755, 0.32066070237070265], [2.910324501635823, -0.48007008880632024], [2.437554568560813, -0.4361302293951335], [2.261142478490576, -0.668889727259513]], [[-68.55743661347755], [58.60868667948369]]],
  "biases": [[[-0.043411968832182624, -0.21077173683383496]], [[7.234287989570269]]]
}